digraph Tree {
node [shape=box, style="filled, rounded", color="black", fontname="helvetica"] ;
graph [ranksep=equally, splines=polyline] ;
edge [fontname="helvetica"] ;
0 [label=<signal_modeling/nuisance_regressors/motion &le; 3.0<br/>gini = 0.953<br/>samples = 100.0%<br/>value = [0.106, 0.033, 0.027, 0.062, 0.027, 0.015, 0.021, 0.029<br/>0.015, 0.038, 0.044, 0.013, 0.05, 0.017, 0.106, 0.012<br/>0.044, 0.01, 0.029, 0.01, 0.046, 0.017, 0.021, 0.025<br/>0.021, 0.015, 0.008, 0.027, 0.01, 0.031, 0.008, 0.006<br/>0.002, 0.021, 0.025, 0.006, 0.004]>, fillcolor="#ffffff"] ;
1 [label=<signal_modeling/hrf/temporal_dispersion_derivs &le; 0.5<br/>gini = 0.72<br/>samples = 23.3%<br/>value = [0.0, 0.0, 0.0, 0.0, 0.0, 0.0, 0.0, 0.124, 0.0, 0.0<br/>0.0, 0.0, 0.0, 0.0, 0.455, 0.0, 0.0, 0.0, 0.0, 0.041<br/>0.198, 0.0, 0.091, 0.0, 0.091, 0.0, 0.0, 0.0, 0.0<br/>0.0, 0.0, 0.0, 0.0, 0.0, 0.0, 0.0, 0.0]>, fillcolor="#c0f7e5"] ;
0 -> 1 [labeldistance=2.5, labelangle=45, headlabel="True"] ;
2 [label=<slice_timing_correction/ref_slice/first &le; 0.5<br/>gini = 0.541<br/>samples = 16.5%<br/>value = [0.0, 0.0, 0.0, 0.0, 0.0, 0.0, 0.0, 0.174, 0.0, 0.0<br/>0.0, 0.0, 0.0, 0.0, 0.64, 0.0, 0.0, 0.0, 0.0, 0.058<br/>0.0, 0.0, 0.128, 0.0, 0.0, 0.0, 0.0, 0.0, 0.0, 0.0<br/>0.0, 0.0, 0.0, 0.0, 0.0, 0.0, 0.0]>, fillcolor="#8ff0d1"] ;
1 -> 2 ;
3 [label=<spatial_normalization/interpolation/nearest_neighbour &le; 0.5<br/>gini = 0.278<br/>samples = 12.7%<br/>value = [0.0, 0.0, 0.0, 0.0, 0.0, 0.0, 0.0, 0.0, 0.0, 0.0<br/>0.0, 0.0, 0.0, 0.0, 0.833, 0.0, 0.0, 0.0, 0.0, 0.0<br/>0.0, 0.0, 0.167, 0.0, 0.0, 0.0, 0.0, 0.0, 0.0, 0.0<br/>0.0, 0.0, 0.0, 0.0, 0.0, 0.0, 0.0]>, fillcolor="#61eabe"] ;
2 -> 3 ;
4 [label=<gini = 0.0<br/>samples = 8.7%<br/>value = [0.0, 0.0, 0.0, 0.0, 0.0, 0.0, 0.0, 0.0, 0.0, 0.0<br/>0.0, 0.0, 0.0, 0.0, 1.0, 0.0, 0.0, 0.0, 0.0, 0.0<br/>0.0, 0.0, 0.0, 0.0, 0.0, 0.0, 0.0, 0.0, 0.0, 0.0<br/>0.0, 0.0, 0.0, 0.0, 0.0, 0.0, 0.0]>, fillcolor="#39e5ae"] ;
3 -> 4 ;
5 [label=<coregistration/source_target/func_on_anat &le; 0.5<br/>gini = 0.499<br/>samples = 4.0%<br/>value = [0.0, 0.0, 0.0, 0.0, 0.0, 0.0, 0.0, 0.0, 0.0, 0.0<br/>0.0, 0.0, 0.0, 0.0, 0.476, 0.0, 0.0, 0.0, 0.0, 0.0<br/>0.0, 0.0, 0.524, 0.0, 0.0, 0.0, 0.0, 0.0, 0.0, 0.0<br/>0.0, 0.0, 0.0, 0.0, 0.0, 0.0, 0.0]>, fillcolor="#ededfd"] ;
3 -> 5 ;
6 [label=<gini = 0.0<br/>samples = 2.1%<br/>value = [0.0, 0.0, 0.0, 0.0, 0.0, 0.0, 0.0, 0.0, 0.0, 0.0<br/>0.0, 0.0, 0.0, 0.0, 0.0, 0.0, 0.0, 0.0, 0.0, 0.0<br/>0.0, 0.0, 1.0, 0.0, 0.0, 0.0, 0.0, 0.0, 0.0, 0.0<br/>0.0, 0.0, 0.0, 0.0, 0.0, 0.0, 0.0]>, fillcolor="#393ce5"] ;
5 -> 6 ;
7 [label=<gini = 0.0<br/>samples = 1.9%<br/>value = [0.0, 0.0, 0.0, 0.0, 0.0, 0.0, 0.0, 0.0, 0.0, 0.0<br/>0.0, 0.0, 0.0, 0.0, 1.0, 0.0, 0.0, 0.0, 0.0, 0.0<br/>0.0, 0.0, 0.0, 0.0, 0.0, 0.0, 0.0, 0.0, 0.0, 0.0<br/>0.0, 0.0, 0.0, 0.0, 0.0, 0.0, 0.0]>, fillcolor="#39e5ae"] ;
5 -> 7 ;
8 [label=<coregistration/source_target/func_on_anat &le; 0.5<br/>gini = 0.375<br/>samples = 3.8%<br/>value = [0.0, 0.0, 0.0, 0.0, 0.0, 0.0, 0.0, 0.75, 0.0, 0.0<br/>0.0, 0.0, 0.0, 0.0, 0.0, 0.0, 0.0, 0.0, 0.0, 0.25<br/>0.0, 0.0, 0.0, 0.0, 0.0, 0.0, 0.0, 0.0, 0.0, 0.0<br/>0.0, 0.0, 0.0, 0.0, 0.0, 0.0, 0.0]>, fillcolor="#aeee7b"] ;
2 -> 8 ;
9 [label=<spatial_normalization/interpolation/nearest_neighbour &le; 0.5<br/>gini = 0.494<br/>samples = 1.7%<br/>value = [0.0, 0.0, 0.0, 0.0, 0.0, 0.0, 0.0, 0.444, 0.0, 0.0<br/>0.0, 0.0, 0.0, 0.0, 0.0, 0.0, 0.0, 0.0, 0.0, 0.556<br/>0.0, 0.0, 0.0, 0.0, 0.0, 0.0, 0.0, 0.0, 0.0, 0.0<br/>0.0, 0.0, 0.0, 0.0, 0.0, 0.0, 0.0]>, fillcolor="#d7e9fa"] ;
8 -> 9 ;
10 [label=<gini = 0.0<br/>samples = 0.8%<br/>value = [0.0, 0.0, 0.0, 0.0, 0.0, 0.0, 0.0, 1.0, 0.0, 0.0<br/>0.0, 0.0, 0.0, 0.0, 0.0, 0.0, 0.0, 0.0, 0.0, 0.0<br/>0.0, 0.0, 0.0, 0.0, 0.0, 0.0, 0.0, 0.0, 0.0, 0.0<br/>0.0, 0.0, 0.0, 0.0, 0.0, 0.0, 0.0]>, fillcolor="#86e539"] ;
9 -> 10 ;
11 [label=<gini = 0.0<br/>samples = 1.0%<br/>value = [0.0, 0.0, 0.0, 0.0, 0.0, 0.0, 0.0, 0.0, 0.0, 0.0<br/>0.0, 0.0, 0.0, 0.0, 0.0, 0.0, 0.0, 0.0, 0.0, 1.0<br/>0.0, 0.0, 0.0, 0.0, 0.0, 0.0, 0.0, 0.0, 0.0, 0.0<br/>0.0, 0.0, 0.0, 0.0, 0.0, 0.0, 0.0]>, fillcolor="#3992e5"] ;
9 -> 11 ;
12 [label=<gini = 0.0<br/>samples = 2.1%<br/>value = [0.0, 0.0, 0.0, 0.0, 0.0, 0.0, 0.0, 1.0, 0.0, 0.0<br/>0.0, 0.0, 0.0, 0.0, 0.0, 0.0, 0.0, 0.0, 0.0, 0.0<br/>0.0, 0.0, 0.0, 0.0, 0.0, 0.0, 0.0, 0.0, 0.0, 0.0<br/>0.0, 0.0, 0.0, 0.0, 0.0, 0.0, 0.0]>, fillcolor="#86e539"] ;
8 -> 12 ;
13 [label=<slice_timing_correction/ref_slice/first &le; 0.5<br/>gini = 0.431<br/>samples = 6.7%<br/>value = [0.0, 0.0, 0.0, 0.0, 0.0, 0.0, 0.0, 0.0, 0.0, 0.0<br/>0.0, 0.0, 0.0, 0.0, 0.0, 0.0, 0.0, 0.0, 0.0, 0.0<br/>0.686, 0.0, 0.0, 0.0, 0.314, 0.0, 0.0, 0.0, 0.0, 0.0<br/>0.0, 0.0, 0.0, 0.0, 0.0, 0.0, 0.0]>, fillcolor="#94b4f1"] ;
1 -> 13 ;
14 [label=<gini = 0.0<br/>samples = 4.6%<br/>value = [0.0, 0.0, 0.0, 0.0, 0.0, 0.0, 0.0, 0.0, 0.0, 0.0<br/>0.0, 0.0, 0.0, 0.0, 0.0, 0.0, 0.0, 0.0, 0.0, 0.0<br/>1.0, 0.0, 0.0, 0.0, 0.0, 0.0, 0.0, 0.0, 0.0, 0.0<br/>0.0, 0.0, 0.0, 0.0, 0.0, 0.0, 0.0]>, fillcolor="#3975e5"] ;
13 -> 14 ;
15 [label=<gini = 0.0<br/>samples = 2.1%<br/>value = [0.0, 0.0, 0.0, 0.0, 0.0, 0.0, 0.0, 0.0, 0.0, 0.0<br/>0.0, 0.0, 0.0, 0.0, 0.0, 0.0, 0.0, 0.0, 0.0, 0.0<br/>0.0, 0.0, 0.0, 0.0, 1.0, 0.0, 0.0, 0.0, 0.0, 0.0<br/>0.0, 0.0, 0.0, 0.0, 0.0, 0.0, 0.0]>, fillcolor="#6d39e5"] ;
13 -> 15 ;
16 [label=<signal_modeling/nuisance_regressors/motion &le; 12.0<br/>gini = 0.946<br/>samples = 76.7%<br/>value = [0.138, 0.043, 0.035, 0.08, 0.035, 0.02, 0.028, 0.0<br/>0.02, 0.05, 0.058, 0.018, 0.065, 0.023, 0.0, 0.015<br/>0.058, 0.013, 0.038, 0.0, 0.0, 0.023, 0.0, 0.033, 0.0<br/>0.02, 0.01, 0.035, 0.013, 0.04, 0.01, 0.008, 0.003<br/>0.028, 0.033, 0.008, 0.005]>, fillcolor="#fdf7f3"] ;
0 -> 16 [labeldistance=2.5, labelangle=-45, headlabel="False"] ;
17 [label=<slice_timing_correction/ref_slice/first &le; 0.5<br/>gini = 0.714<br/>samples = 23.1%<br/>value = [0.458, 0.0, 0.0, 0.0, 0.0, 0.067, 0.0, 0.0, 0.0<br/>0.167, 0.0, 0.0, 0.0, 0.075, 0.0, 0.0, 0.192, 0.0<br/>0.0, 0.0, 0.0, 0.0, 0.0, 0.0, 0.0, 0.0, 0.0, 0.0<br/>0.042, 0.0, 0.0, 0.0, 0.0, 0.0, 0.0, 0.0, 0.0]>, fillcolor="#f6d5be"] ;
16 -> 17 ;
18 [label=<signal_modeling/hrf/temporal_dispersion_derivs &le; 0.5<br/>gini = 0.494<br/>samples = 16.0%<br/>value = [0.663, 0.0, 0.0, 0.0, 0.0, 0.096, 0.0, 0.0, 0.0<br/>0.241, 0.0, 0.0, 0.0, 0.0, 0.0, 0.0, 0.0, 0.0, 0.0<br/>0.0, 0.0, 0.0, 0.0, 0.0, 0.0, 0.0, 0.0, 0.0, 0.0<br/>0.0, 0.0, 0.0, 0.0, 0.0, 0.0, 0.0, 0.0]>, fillcolor="#f1b991"] ;
17 -> 18 ;
19 [label=<spatial_normalization/interpolation/nearest_neighbour &le; 0.5<br/>gini = 0.222<br/>samples = 12.1%<br/>value = [0.873, 0.0, 0.0, 0.0, 0.0, 0.127, 0.0, 0.0, 0.0, 0.0<br/>0.0, 0.0, 0.0, 0.0, 0.0, 0.0, 0.0, 0.0, 0.0, 0.0<br/>0.0, 0.0, 0.0, 0.0, 0.0, 0.0, 0.0, 0.0, 0.0, 0.0<br/>0.0, 0.0, 0.0, 0.0, 0.0, 0.0, 0.0]>, fillcolor="#e99356"] ;
18 -> 19 ;
20 [label=<gini = 0.0<br/>samples = 8.8%<br/>value = [1.0, 0.0, 0.0, 0.0, 0.0, 0.0, 0.0, 0.0, 0.0, 0.0<br/>0.0, 0.0, 0.0, 0.0, 0.0, 0.0, 0.0, 0.0, 0.0, 0.0<br/>0.0, 0.0, 0.0, 0.0, 0.0, 0.0, 0.0, 0.0, 0.0, 0.0<br/>0.0, 0.0, 0.0, 0.0, 0.0, 0.0, 0.0]>, fillcolor="#e58139"] ;
19 -> 20 ;
21 [label=<coregistration/source_target/anat_on_func &le; 0.5<br/>gini = 0.498<br/>samples = 3.3%<br/>value = [0.529, 0.0, 0.0, 0.0, 0.0, 0.471, 0.0, 0.0, 0.0, 0.0<br/>0.0, 0.0, 0.0, 0.0, 0.0, 0.0, 0.0, 0.0, 0.0, 0.0<br/>0.0, 0.0, 0.0, 0.0, 0.0, 0.0, 0.0, 0.0, 0.0, 0.0<br/>0.0, 0.0, 0.0, 0.0, 0.0, 0.0, 0.0]>, fillcolor="#fcf1e9"] ;
19 -> 21 ;
22 [label=<gini = 0.0<br/>samples = 1.7%<br/>value = [1.0, 0.0, 0.0, 0.0, 0.0, 0.0, 0.0, 0.0, 0.0, 0.0<br/>0.0, 0.0, 0.0, 0.0, 0.0, 0.0, 0.0, 0.0, 0.0, 0.0<br/>0.0, 0.0, 0.0, 0.0, 0.0, 0.0, 0.0, 0.0, 0.0, 0.0<br/>0.0, 0.0, 0.0, 0.0, 0.0, 0.0, 0.0]>, fillcolor="#e58139"] ;
21 -> 22 ;
23 [label=<gini = 0.0<br/>samples = 1.5%<br/>value = [0.0, 0.0, 0.0, 0.0, 0.0, 1.0, 0.0, 0.0, 0.0, 0.0<br/>0.0, 0.0, 0.0, 0.0, 0.0, 0.0, 0.0, 0.0, 0.0, 0.0<br/>0.0, 0.0, 0.0, 0.0, 0.0, 0.0, 0.0, 0.0, 0.0, 0.0<br/>0.0, 0.0, 0.0, 0.0, 0.0, 0.0, 0.0]>, fillcolor="#c0e539"] ;
21 -> 23 ;
24 [label=<gini = 0.0<br/>samples = 3.8%<br/>value = [0.0, 0.0, 0.0, 0.0, 0.0, 0.0, 0.0, 0.0, 0.0, 1.0<br/>0.0, 0.0, 0.0, 0.0, 0.0, 0.0, 0.0, 0.0, 0.0, 0.0<br/>0.0, 0.0, 0.0, 0.0, 0.0, 0.0, 0.0, 0.0, 0.0, 0.0<br/>0.0, 0.0, 0.0, 0.0, 0.0, 0.0, 0.0]>, fillcolor="#50e539"] ;
18 -> 24 ;
25 [label=<signal_modeling/hrf/temporal_dispersion_derivs &le; 0.5<br/>gini = 0.536<br/>samples = 7.1%<br/>value = [0.0, 0.0, 0.0, 0.0, 0.0, 0.0, 0.0, 0.0, 0.0, 0.0<br/>0.0, 0.0, 0.0, 0.243, 0.0, 0.0, 0.622, 0.0, 0.0, 0.0<br/>0.0, 0.0, 0.0, 0.0, 0.0, 0.0, 0.0, 0.0, 0.135, 0.0<br/>0.0, 0.0, 0.0, 0.0, 0.0, 0.0, 0.0]>, fillcolor="#9cf2f2"] ;
17 -> 25 ;
26 [label=<spatial_normalization/interpolation/nearest_neighbour &le; 0.5<br/>gini = 0.293<br/>samples = 5.4%<br/>value = [0.0, 0.0, 0.0, 0.0, 0.0, 0.0, 0.0, 0.0, 0.0, 0.0<br/>0.0, 0.0, 0.0, 0.0, 0.0, 0.0, 0.821, 0.0, 0.0, 0.0<br/>0.0, 0.0, 0.0, 0.0, 0.0, 0.0, 0.0, 0.0, 0.179, 0.0<br/>0.0, 0.0, 0.0, 0.0, 0.0, 0.0, 0.0]>, fillcolor="#64ebeb"] ;
25 -> 26 ;
27 [label=<gini = 0.0<br/>samples = 3.7%<br/>value = [0.0, 0.0, 0.0, 0.0, 0.0, 0.0, 0.0, 0.0, 0.0, 0.0<br/>0.0, 0.0, 0.0, 0.0, 0.0, 0.0, 1.0, 0.0, 0.0, 0.0<br/>0.0, 0.0, 0.0, 0.0, 0.0, 0.0, 0.0, 0.0, 0.0, 0.0<br/>0.0, 0.0, 0.0, 0.0, 0.0, 0.0, 0.0]>, fillcolor="#39e5e5"] ;
26 -> 27 ;
28 [label=<coregistration/source_target/func_on_anat &le; 0.5<br/>gini = 0.494<br/>samples = 1.7%<br/>value = [0.0, 0.0, 0.0, 0.0, 0.0, 0.0, 0.0, 0.0, 0.0, 0.0<br/>0.0, 0.0, 0.0, 0.0, 0.0, 0.0, 0.444, 0.0, 0.0, 0.0<br/>0.0, 0.0, 0.0, 0.0, 0.0, 0.0, 0.0, 0.0, 0.556, 0.0<br/>0.0, 0.0, 0.0, 0.0, 0.0, 0.0, 0.0]>, fillcolor="#f8d7fa"] ;
26 -> 28 ;
29 [label=<gini = 0.0<br/>samples = 1.0%<br/>value = [0.0, 0.0, 0.0, 0.0, 0.0, 0.0, 0.0, 0.0, 0.0, 0.0<br/>0.0, 0.0, 0.0, 0.0, 0.0, 0.0, 0.0, 0.0, 0.0, 0.0<br/>0.0, 0.0, 0.0, 0.0, 0.0, 0.0, 0.0, 0.0, 1.0, 0.0<br/>0.0, 0.0, 0.0, 0.0, 0.0, 0.0, 0.0]>, fillcolor="#dc39e5"] ;
28 -> 29 ;
30 [label=<gini = 0.0<br/>samples = 0.8%<br/>value = [0.0, 0.0, 0.0, 0.0, 0.0, 0.0, 0.0, 0.0, 0.0, 0.0<br/>0.0, 0.0, 0.0, 0.0, 0.0, 0.0, 1.0, 0.0, 0.0, 0.0<br/>0.0, 0.0, 0.0, 0.0, 0.0, 0.0, 0.0, 0.0, 0.0, 0.0<br/>0.0, 0.0, 0.0, 0.0, 0.0, 0.0, 0.0]>, fillcolor="#39e5e5"] ;
28 -> 30 ;
31 [label=<gini = 0.0<br/>samples = 1.7%<br/>value = [0.0, 0.0, 0.0, 0.0, 0.0, 0.0, 0.0, 0.0, 0.0, 0.0<br/>0.0, 0.0, 0.0, 1.0, 0.0, 0.0, 0.0, 0.0, 0.0, 0.0<br/>0.0, 0.0, 0.0, 0.0, 0.0, 0.0, 0.0, 0.0, 0.0, 0.0<br/>0.0, 0.0, 0.0, 0.0, 0.0, 0.0, 0.0]>, fillcolor="#39e592"] ;
25 -> 31 ;
32 [label=<signal_modeling/hrf/temporal_dispersion_derivs &le; 0.5<br/>gini = 0.942<br/>samples = 53.7%<br/>value = [0.0, 0.061, 0.05, 0.115, 0.05, 0.0, 0.039, 0.0, 0.029<br/>0.0, 0.082, 0.025, 0.093, 0.0, 0.0, 0.022, 0.0, 0.018<br/>0.054, 0.0, 0.0, 0.032, 0.0, 0.047, 0.0, 0.029, 0.014<br/>0.05, 0.0, 0.057, 0.014, 0.011, 0.004, 0.039, 0.047<br/>0.011, 0.007]>, fillcolor="#fefefa"] ;
16 -> 32 ;
33 [label=<signal_modeling/nuisance_regressors/motion &le; 21.0<br/>gini = 0.919<br/>samples = 36.2%<br/>value = [0.0, 0.09, 0.074, 0.17, 0.074, 0.0, 0.059, 0.0, 0.043<br/>0.0, 0.0, 0.037, 0.0, 0.0, 0.0, 0.032, 0.0, 0.027<br/>0.08, 0.0, 0.0, 0.0, 0.0, 0.0, 0.0, 0.043, 0.021<br/>0.0, 0.0, 0.085, 0.021, 0.0, 0.005, 0.059, 0.069, 0.0<br/>0.011]>, fillcolor="#fdfbee"] ;
32 -> 33 ;
34 [label=<slice_timing_correction/ref_slice/first &le; 0.5<br/>gini = 0.859<br/>samples = 17.9%<br/>value = [0.0, 0.183, 0.0, 0.0, 0.151, 0.0, 0.0, 0.0, 0.086<br/>0.0, 0.0, 0.075, 0.0, 0.0, 0.0, 0.0, 0.0, 0.0, 0.161<br/>0.0, 0.0, 0.0, 0.0, 0.0, 0.0, 0.0, 0.043, 0.0, 0.0<br/>0.172, 0.0, 0.0, 0.011, 0.118, 0.0, 0.0, 0.0]>, fillcolor="#fffefc"] ;
33 -> 34 ;
35 [label=<signal_modeling/hrf/canonical &le; 0.5<br/>gini = 0.801<br/>samples = 12.5%<br/>value = [0.0, 0.262, 0.0, 0.0, 0.215, 0.0, 0.0, 0.0, 0.123<br/>0.0, 0.0, 0.108, 0.0, 0.0, 0.0, 0.0, 0.0, 0.0, 0.231<br/>0.0, 0.0, 0.0, 0.0, 0.0, 0.0, 0.0, 0.062, 0.0, 0.0<br/>0.0, 0.0, 0.0, 0.0, 0.0, 0.0, 0.0, 0.0]>, fillcolor="#fefbf7"] ;
34 -> 35 ;
36 [label=<signal_modeling/temporal_noise_autocorrelation/FAST &le; 0.5<br/>gini = 0.599<br/>samples = 6.3%<br/>value = [0.0, 0.0, 0.0, 0.0, 0.424, 0.0, 0.0, 0.0, 0.0, 0.0<br/>0.0, 0.0, 0.0, 0.0, 0.0, 0.0, 0.0, 0.0, 0.455, 0.0<br/>0.0, 0.0, 0.0, 0.0, 0.0, 0.0, 0.121, 0.0, 0.0, 0.0<br/>0.0, 0.0, 0.0, 0.0, 0.0, 0.0, 0.0]>, fillcolor="#f5fbfe"] ;
35 -> 36 ;
37 [label=<gini = 0.0<br/>samples = 2.7%<br/>value = [0.0, 0.0, 0.0, 0.0, 1.0, 0.0, 0.0, 0.0, 0.0, 0.0<br/>0.0, 0.0, 0.0, 0.0, 0.0, 0.0, 0.0, 0.0, 0.0, 0.0<br/>0.0, 0.0, 0.0, 0.0, 0.0, 0.0, 0.0, 0.0, 0.0, 0.0<br/>0.0, 0.0, 0.0, 0.0, 0.0, 0.0, 0.0]>, fillcolor="#dce539"] ;
36 -> 37 ;
38 [label=<spatial_normalization/interpolation/nearest_neighbour &le; 0.5<br/>gini = 0.332<br/>samples = 3.7%<br/>value = [0.0, 0.0, 0.0, 0.0, 0.0, 0.0, 0.0, 0.0, 0.0, 0.0<br/>0.0, 0.0, 0.0, 0.0, 0.0, 0.0, 0.0, 0.0, 0.789, 0.0<br/>0.0, 0.0, 0.0, 0.0, 0.0, 0.0, 0.211, 0.0, 0.0, 0.0<br/>0.0, 0.0, 0.0, 0.0, 0.0, 0.0, 0.0]>, fillcolor="#6ec2ec"] ;
36 -> 38 ;
39 [label=<gini = 0.0<br/>samples = 2.1%<br/>value = [0.0, 0.0, 0.0, 0.0, 0.0, 0.0, 0.0, 0.0, 0.0, 0.0<br/>0.0, 0.0, 0.0, 0.0, 0.0, 0.0, 0.0, 0.0, 1.0, 0.0<br/>0.0, 0.0, 0.0, 0.0, 0.0, 0.0, 0.0, 0.0, 0.0, 0.0<br/>0.0, 0.0, 0.0, 0.0, 0.0, 0.0, 0.0]>, fillcolor="#39ace5"] ;
38 -> 39 ;
40 [label=<coregistration/source_target/anat_on_func &le; 0.5<br/>gini = 0.5<br/>samples = 1.5%<br/>value = [0.0, 0.0, 0.0, 0.0, 0.0, 0.0, 0.0, 0.0, 0.0, 0.0<br/>0.0, 0.0, 0.0, 0.0, 0.0, 0.0, 0.0, 0.0, 0.5, 0.0<br/>0.0, 0.0, 0.0, 0.0, 0.0, 0.0, 0.5, 0.0, 0.0, 0.0<br/>0.0, 0.0, 0.0, 0.0, 0.0, 0.0, 0.0]>, fillcolor="#ffffff"] ;
38 -> 40 ;
41 [label=<gini = 0.0<br/>samples = 0.8%<br/>value = [0.0, 0.0, 0.0, 0.0, 0.0, 0.0, 0.0, 0.0, 0.0, 0.0<br/>0.0, 0.0, 0.0, 0.0, 0.0, 0.0, 0.0, 0.0, 1.0, 0.0<br/>0.0, 0.0, 0.0, 0.0, 0.0, 0.0, 0.0, 0.0, 0.0, 0.0<br/>0.0, 0.0, 0.0, 0.0, 0.0, 0.0, 0.0]>, fillcolor="#39ace5"] ;
40 -> 41 ;
42 [label=<gini = 0.0<br/>samples = 0.8%<br/>value = [0.0, 0.0, 0.0, 0.0, 0.0, 0.0, 0.0, 0.0, 0.0, 0.0<br/>0.0, 0.0, 0.0, 0.0, 0.0, 0.0, 0.0, 0.0, 0.0, 0.0<br/>0.0, 0.0, 0.0, 0.0, 0.0, 0.0, 1.0, 0.0, 0.0, 0.0<br/>0.0, 0.0, 0.0, 0.0, 0.0, 0.0, 0.0]>, fillcolor="#a339e5"] ;
40 -> 42 ;
43 [label=<spatial_normalization/interpolation/nearest_neighbour &le; 0.5<br/>gini = 0.607<br/>samples = 6.2%<br/>value = [0.0, 0.531, 0.0, 0.0, 0.0, 0.0, 0.0, 0.0, 0.25, 0.0<br/>0.0, 0.219, 0.0, 0.0, 0.0, 0.0, 0.0, 0.0, 0.0, 0.0<br/>0.0, 0.0, 0.0, 0.0, 0.0, 0.0, 0.0, 0.0, 0.0, 0.0<br/>0.0, 0.0, 0.0, 0.0, 0.0, 0.0, 0.0]>, fillcolor="#f5d9b5"] ;
35 -> 43 ;
44 [label=<signal_modeling/temporal_noise_autocorrelation/FAST &le; 0.5<br/>gini = 0.432<br/>samples = 3.7%<br/>value = [0.0, 0.684, 0.0, 0.0, 0.0, 0.0, 0.0, 0.0, 0.316, 0.0<br/>0.0, 0.0, 0.0, 0.0, 0.0, 0.0, 0.0, 0.0, 0.0, 0.0<br/>0.0, 0.0, 0.0, 0.0, 0.0, 0.0, 0.0, 0.0, 0.0, 0.0<br/>0.0, 0.0, 0.0, 0.0, 0.0, 0.0, 0.0]>, fillcolor="#f1c994"] ;
43 -> 44 ;
45 [label=<gini = 0.0<br/>samples = 1.2%<br/>value = [0.0, 1.0, 0.0, 0.0, 0.0, 0.0, 0.0, 0.0, 0.0, 0.0<br/>0.0, 0.0, 0.0, 0.0, 0.0, 0.0, 0.0, 0.0, 0.0, 0.0<br/>0.0, 0.0, 0.0, 0.0, 0.0, 0.0, 0.0, 0.0, 0.0, 0.0<br/>0.0, 0.0, 0.0, 0.0, 0.0, 0.0, 0.0]>, fillcolor="#e59a39"] ;
44 -> 45 ;
46 [label=<slice_timing_correction &le; 0.5<br/>gini = 0.497<br/>samples = 2.5%<br/>value = [0.0, 0.538, 0.0, 0.0, 0.0, 0.0, 0.0, 0.0, 0.462, 0.0<br/>0.0, 0.0, 0.0, 0.0, 0.0, 0.0, 0.0, 0.0, 0.0, 0.0<br/>0.0, 0.0, 0.0, 0.0, 0.0, 0.0, 0.0, 0.0, 0.0, 0.0<br/>0.0, 0.0, 0.0, 0.0, 0.0, 0.0, 0.0]>, fillcolor="#fbf1e3"] ;
44 -> 46 ;
47 [label=<coregistration/source_target/anat_on_func &le; 0.5<br/>gini = 0.245<br/>samples = 1.3%<br/>value = [0.0, 0.857, 0.0, 0.0, 0.0, 0.0, 0.0, 0.0, 0.143, 0.0<br/>0.0, 0.0, 0.0, 0.0, 0.0, 0.0, 0.0, 0.0, 0.0, 0.0<br/>0.0, 0.0, 0.0, 0.0, 0.0, 0.0, 0.0, 0.0, 0.0, 0.0<br/>0.0, 0.0, 0.0, 0.0, 0.0, 0.0, 0.0]>, fillcolor="#e9ab5a"] ;
46 -> 47 ;
48 [label=<gini = 0.0<br/>samples = 0.8%<br/>value = [0.0, 1.0, 0.0, 0.0, 0.0, 0.0, 0.0, 0.0, 0.0, 0.0<br/>0.0, 0.0, 0.0, 0.0, 0.0, 0.0, 0.0, 0.0, 0.0, 0.0<br/>0.0, 0.0, 0.0, 0.0, 0.0, 0.0, 0.0, 0.0, 0.0, 0.0<br/>0.0, 0.0, 0.0, 0.0, 0.0, 0.0, 0.0]>, fillcolor="#e59a39"] ;
47 -> 48 ;
49 [label=<motion_correction_realignment/register_to/first &le; 0.5<br/>gini = 0.444<br/>samples = 0.6%<br/>value = [0.0, 0.667, 0.0, 0.0, 0.0, 0.0, 0.0, 0.0, 0.333, 0.0<br/>0.0, 0.0, 0.0, 0.0, 0.0, 0.0, 0.0, 0.0, 0.0, 0.0<br/>0.0, 0.0, 0.0, 0.0, 0.0, 0.0, 0.0, 0.0, 0.0, 0.0<br/>0.0, 0.0, 0.0, 0.0, 0.0, 0.0, 0.0]>, fillcolor="#f2cc9c"] ;
47 -> 49 ;
50 [label=<gini = 0.0<br/>samples = 0.4%<br/>value = [0.0, 1.0, 0.0, 0.0, 0.0, 0.0, 0.0, 0.0, 0.0, 0.0<br/>0.0, 0.0, 0.0, 0.0, 0.0, 0.0, 0.0, 0.0, 0.0, 0.0<br/>0.0, 0.0, 0.0, 0.0, 0.0, 0.0, 0.0, 0.0, 0.0, 0.0<br/>0.0, 0.0, 0.0, 0.0, 0.0, 0.0, 0.0]>, fillcolor="#e59a39"] ;
49 -> 50 ;
51 [label=<gini = 0.0<br/>samples = 0.2%<br/>value = [0.0, 0.0, 0.0, 0.0, 0.0, 0.0, 0.0, 0.0, 1.0, 0.0<br/>0.0, 0.0, 0.0, 0.0, 0.0, 0.0, 0.0, 0.0, 0.0, 0.0<br/>0.0, 0.0, 0.0, 0.0, 0.0, 0.0, 0.0, 0.0, 0.0, 0.0<br/>0.0, 0.0, 0.0, 0.0, 0.0, 0.0, 0.0]>, fillcolor="#6de539"] ;
49 -> 51 ;
52 [label=<coregistration/source_target/anat_on_func &le; 0.5<br/>gini = 0.278<br/>samples = 1.2%<br/>value = [0.0, 0.167, 0.0, 0.0, 0.0, 0.0, 0.0, 0.0, 0.833, 0.0<br/>0.0, 0.0, 0.0, 0.0, 0.0, 0.0, 0.0, 0.0, 0.0, 0.0<br/>0.0, 0.0, 0.0, 0.0, 0.0, 0.0, 0.0, 0.0, 0.0, 0.0<br/>0.0, 0.0, 0.0, 0.0, 0.0, 0.0, 0.0]>, fillcolor="#8aea61"] ;
46 -> 52 ;
53 [label=<gini = 0.0<br/>samples = 0.8%<br/>value = [0.0, 0.0, 0.0, 0.0, 0.0, 0.0, 0.0, 0.0, 1.0, 0.0<br/>0.0, 0.0, 0.0, 0.0, 0.0, 0.0, 0.0, 0.0, 0.0, 0.0<br/>0.0, 0.0, 0.0, 0.0, 0.0, 0.0, 0.0, 0.0, 0.0, 0.0<br/>0.0, 0.0, 0.0, 0.0, 0.0, 0.0, 0.0]>, fillcolor="#6de539"] ;
52 -> 53 ;
54 [label=<coregistration/cost_function/mutual_information &le; 0.5<br/>gini = 0.5<br/>samples = 0.4%<br/>value = [0.0, 0.5, 0.0, 0.0, 0.0, 0.0, 0.0, 0.0, 0.5, 0.0<br/>0.0, 0.0, 0.0, 0.0, 0.0, 0.0, 0.0, 0.0, 0.0, 0.0<br/>0.0, 0.0, 0.0, 0.0, 0.0, 0.0, 0.0, 0.0, 0.0, 0.0<br/>0.0, 0.0, 0.0, 0.0, 0.0, 0.0, 0.0]>, fillcolor="#ffffff"] ;
52 -> 54 ;
55 [label=<gini = 0.0<br/>samples = 0.2%<br/>value = [0.0, 0.0, 0.0, 0.0, 0.0, 0.0, 0.0, 0.0, 1.0, 0.0<br/>0.0, 0.0, 0.0, 0.0, 0.0, 0.0, 0.0, 0.0, 0.0, 0.0<br/>0.0, 0.0, 0.0, 0.0, 0.0, 0.0, 0.0, 0.0, 0.0, 0.0<br/>0.0, 0.0, 0.0, 0.0, 0.0, 0.0, 0.0]>, fillcolor="#6de539"] ;
54 -> 55 ;
56 [label=<gini = 0.0<br/>samples = 0.2%<br/>value = [0.0, 1.0, 0.0, 0.0, 0.0, 0.0, 0.0, 0.0, 0.0, 0.0<br/>0.0, 0.0, 0.0, 0.0, 0.0, 0.0, 0.0, 0.0, 0.0, 0.0<br/>0.0, 0.0, 0.0, 0.0, 0.0, 0.0, 0.0, 0.0, 0.0, 0.0<br/>0.0, 0.0, 0.0, 0.0, 0.0, 0.0, 0.0]>, fillcolor="#e59a39"] ;
54 -> 56 ;
57 [label=<coregistration/source_target/func_on_anat &le; 0.5<br/>gini = 0.592<br/>samples = 2.5%<br/>value = [0.0, 0.308, 0.0, 0.0, 0.0, 0.0, 0.0, 0.0, 0.154, 0.0<br/>0.0, 0.538, 0.0, 0.0, 0.0, 0.0, 0.0, 0.0, 0.0, 0.0<br/>0.0, 0.0, 0.0, 0.0, 0.0, 0.0, 0.0, 0.0, 0.0, 0.0<br/>0.0, 0.0, 0.0, 0.0, 0.0, 0.0, 0.0]>, fillcolor="#bdf6c8"] ;
43 -> 57 ;
58 [label=<gini = 0.0<br/>samples = 1.3%<br/>value = [0.0, 0.0, 0.0, 0.0, 0.0, 0.0, 0.0, 0.0, 0.0, 0.0<br/>0.0, 1.0, 0.0, 0.0, 0.0, 0.0, 0.0, 0.0, 0.0, 0.0<br/>0.0, 0.0, 0.0, 0.0, 0.0, 0.0, 0.0, 0.0, 0.0, 0.0<br/>0.0, 0.0, 0.0, 0.0, 0.0, 0.0, 0.0]>, fillcolor="#39e55b"] ;
57 -> 58 ;
59 [label=<signal_modeling/temporal_noise_autocorrelation/FAST &le; 0.5<br/>gini = 0.444<br/>samples = 1.2%<br/>value = [0.0, 0.667, 0.0, 0.0, 0.0, 0.0, 0.0, 0.0, 0.333, 0.0<br/>0.0, 0.0, 0.0, 0.0, 0.0, 0.0, 0.0, 0.0, 0.0, 0.0<br/>0.0, 0.0, 0.0, 0.0, 0.0, 0.0, 0.0, 0.0, 0.0, 0.0<br/>0.0, 0.0, 0.0, 0.0, 0.0, 0.0, 0.0]>, fillcolor="#f2cc9c"] ;
57 -> 59 ;
60 [label=<gini = 0.0<br/>samples = 0.6%<br/>value = [0.0, 1.0, 0.0, 0.0, 0.0, 0.0, 0.0, 0.0, 0.0, 0.0<br/>0.0, 0.0, 0.0, 0.0, 0.0, 0.0, 0.0, 0.0, 0.0, 0.0<br/>0.0, 0.0, 0.0, 0.0, 0.0, 0.0, 0.0, 0.0, 0.0, 0.0<br/>0.0, 0.0, 0.0, 0.0, 0.0, 0.0, 0.0]>, fillcolor="#e59a39"] ;
59 -> 60 ;
61 [label=<slice_timing_correction/ref_slice &le; 0.5<br/>gini = 0.444<br/>samples = 0.6%<br/>value = [0.0, 0.333, 0.0, 0.0, 0.0, 0.0, 0.0, 0.0, 0.667, 0.0<br/>0.0, 0.0, 0.0, 0.0, 0.0, 0.0, 0.0, 0.0, 0.0, 0.0<br/>0.0, 0.0, 0.0, 0.0, 0.0, 0.0, 0.0, 0.0, 0.0, 0.0<br/>0.0, 0.0, 0.0, 0.0, 0.0, 0.0, 0.0]>, fillcolor="#b6f29c"] ;
59 -> 61 ;
62 [label=<gini = 0.0<br/>samples = 0.2%<br/>value = [0.0, 1.0, 0.0, 0.0, 0.0, 0.0, 0.0, 0.0, 0.0, 0.0<br/>0.0, 0.0, 0.0, 0.0, 0.0, 0.0, 0.0, 0.0, 0.0, 0.0<br/>0.0, 0.0, 0.0, 0.0, 0.0, 0.0, 0.0, 0.0, 0.0, 0.0<br/>0.0, 0.0, 0.0, 0.0, 0.0, 0.0, 0.0]>, fillcolor="#e59a39"] ;
61 -> 62 ;
63 [label=<gini = 0.0<br/>samples = 0.4%<br/>value = [0.0, 0.0, 0.0, 0.0, 0.0, 0.0, 0.0, 0.0, 1.0, 0.0<br/>0.0, 0.0, 0.0, 0.0, 0.0, 0.0, 0.0, 0.0, 0.0, 0.0<br/>0.0, 0.0, 0.0, 0.0, 0.0, 0.0, 0.0, 0.0, 0.0, 0.0<br/>0.0, 0.0, 0.0, 0.0, 0.0, 0.0, 0.0]>, fillcolor="#6de539"] ;
61 -> 63 ;
64 [label=<signal_modeling/hrf/canonical &le; 0.5<br/>gini = 0.518<br/>samples = 5.4%<br/>value = [0.0, 0.0, 0.0, 0.0, 0.0, 0.0, 0.0, 0.0, 0.0, 0.0<br/>0.0, 0.0, 0.0, 0.0, 0.0, 0.0, 0.0, 0.0, 0.0, 0.0<br/>0.0, 0.0, 0.0, 0.0, 0.0, 0.0, 0.0, 0.0, 0.0, 0.571<br/>0.0, 0.0, 0.036, 0.393, 0.0, 0.0, 0.0]>, fillcolor="#f7c5f1"] ;
34 -> 64 ;
65 [label=<spatial_normalization/interpolation/nearest_neighbour &le; 0.5<br/>gini = 0.111<br/>samples = 3.3%<br/>value = [0.0, 0.0, 0.0, 0.0, 0.0, 0.0, 0.0, 0.0, 0.0, 0.0<br/>0.0, 0.0, 0.0, 0.0, 0.0, 0.0, 0.0, 0.0, 0.0, 0.0<br/>0.0, 0.0, 0.0, 0.0, 0.0, 0.0, 0.0, 0.0, 0.0, 0.941<br/>0.0, 0.0, 0.059, 0.0, 0.0, 0.0, 0.0]>, fillcolor="#e745d4"] ;
64 -> 65 ;
66 [label=<gini = 0.0<br/>samples = 2.5%<br/>value = [0.0, 0.0, 0.0, 0.0, 0.0, 0.0, 0.0, 0.0, 0.0, 0.0<br/>0.0, 0.0, 0.0, 0.0, 0.0, 0.0, 0.0, 0.0, 0.0, 0.0<br/>0.0, 0.0, 0.0, 0.0, 0.0, 0.0, 0.0, 0.0, 0.0, 1.0<br/>0.0, 0.0, 0.0, 0.0, 0.0, 0.0, 0.0]>, fillcolor="#e539d1"] ;
65 -> 66 ;
67 [label=<coregistration/source_target/anat_on_func &le; 0.5<br/>gini = 0.375<br/>samples = 0.8%<br/>value = [0.0, 0.0, 0.0, 0.0, 0.0, 0.0, 0.0, 0.0, 0.0, 0.0<br/>0.0, 0.0, 0.0, 0.0, 0.0, 0.0, 0.0, 0.0, 0.0, 0.0<br/>0.0, 0.0, 0.0, 0.0, 0.0, 0.0, 0.0, 0.0, 0.0, 0.75<br/>0.0, 0.0, 0.25, 0.0, 0.0, 0.0, 0.0]>, fillcolor="#ee7be0"] ;
65 -> 67 ;
68 [label=<gini = 0.0<br/>samples = 0.6%<br/>value = [0.0, 0.0, 0.0, 0.0, 0.0, 0.0, 0.0, 0.0, 0.0, 0.0<br/>0.0, 0.0, 0.0, 0.0, 0.0, 0.0, 0.0, 0.0, 0.0, 0.0<br/>0.0, 0.0, 0.0, 0.0, 0.0, 0.0, 0.0, 0.0, 0.0, 1.0<br/>0.0, 0.0, 0.0, 0.0, 0.0, 0.0, 0.0]>, fillcolor="#e539d1"] ;
67 -> 68 ;
69 [label=<gini = 0.0<br/>samples = 0.2%<br/>value = [0.0, 0.0, 0.0, 0.0, 0.0, 0.0, 0.0, 0.0, 0.0, 0.0<br/>0.0, 0.0, 0.0, 0.0, 0.0, 0.0, 0.0, 0.0, 0.0, 0.0<br/>0.0, 0.0, 0.0, 0.0, 0.0, 0.0, 0.0, 0.0, 0.0, 0.0<br/>0.0, 0.0, 1.0, 0.0, 0.0, 0.0, 0.0]>, fillcolor="#e5397e"] ;
67 -> 69 ;
70 [label=<gini = 0.0<br/>samples = 2.1%<br/>value = [0.0, 0.0, 0.0, 0.0, 0.0, 0.0, 0.0, 0.0, 0.0, 0.0<br/>0.0, 0.0, 0.0, 0.0, 0.0, 0.0, 0.0, 0.0, 0.0, 0.0<br/>0.0, 0.0, 0.0, 0.0, 0.0, 0.0, 0.0, 0.0, 0.0, 0.0<br/>0.0, 0.0, 0.0, 1.0, 0.0, 0.0, 0.0]>, fillcolor="#e53961"] ;
64 -> 70 ;
71 [label=<signal_modeling/hrf/canonical &le; 0.5<br/>gini = 0.817<br/>samples = 18.3%<br/>value = [0.0, 0.0, 0.147, 0.337, 0.0, 0.0, 0.116, 0.0, 0.0<br/>0.0, 0.0, 0.0, 0.0, 0.0, 0.0, 0.063, 0.0, 0.053, 0.0<br/>0.0, 0.0, 0.0, 0.0, 0.0, 0.0, 0.084, 0.0, 0.0, 0.0<br/>0.0, 0.042, 0.0, 0.0, 0.0, 0.137, 0.0, 0.021]>, fillcolor="#f9f5d3"] ;
33 -> 71 ;
72 [label=<slice_timing_correction/ref_slice/middle &le; 0.5<br/>gini = 0.761<br/>samples = 8.1%<br/>value = [0.0, 0.0, 0.333, 0.0, 0.0, 0.0, 0.262, 0.0, 0.0, 0.0<br/>0.0, 0.0, 0.0, 0.0, 0.0, 0.0, 0.0, 0.119, 0.0, 0.0<br/>0.0, 0.0, 0.0, 0.0, 0.0, 0.19, 0.0, 0.0, 0.0, 0.0<br/>0.095, 0.0, 0.0, 0.0, 0.0, 0.0, 0.0]>, fillcolor="#fcf8ec"] ;
71 -> 72 ;
73 [label=<slice_timing_correction/ref_slice &le; 0.5<br/>gini = 0.702<br/>samples = 5.2%<br/>value = [0.0, 0.0, 0.0, 0.0, 0.0, 0.0, 0.407, 0.0, 0.0, 0.0<br/>0.0, 0.0, 0.0, 0.0, 0.0, 0.0, 0.0, 0.148, 0.0, 0.0<br/>0.0, 0.0, 0.0, 0.0, 0.0, 0.296, 0.0, 0.0, 0.0, 0.0<br/>0.148, 0.0, 0.0, 0.0, 0.0, 0.0, 0.0]>, fillcolor="#f0fbe0"] ;
72 -> 73 ;
74 [label=<coregistration/source_target/anat_on_func &le; 0.5<br/>gini = 0.391<br/>samples = 2.9%<br/>value = [0.0, 0.0, 0.0, 0.0, 0.0, 0.0, 0.733, 0.0, 0.0, 0.0<br/>0.0, 0.0, 0.0, 0.0, 0.0, 0.0, 0.0, 0.267, 0.0, 0.0<br/>0.0, 0.0, 0.0, 0.0, 0.0, 0.0, 0.0, 0.0, 0.0, 0.0<br/>0.0, 0.0, 0.0, 0.0, 0.0, 0.0, 0.0]>, fillcolor="#c4ee81"] ;
73 -> 74 ;
75 [label=<gini = 0.0<br/>samples = 1.3%<br/>value = [0.0, 0.0, 0.0, 0.0, 0.0, 0.0, 1.0, 0.0, 0.0, 0.0<br/>0.0, 0.0, 0.0, 0.0, 0.0, 0.0, 0.0, 0.0, 0.0, 0.0<br/>0.0, 0.0, 0.0, 0.0, 0.0, 0.0, 0.0, 0.0, 0.0, 0.0<br/>0.0, 0.0, 0.0, 0.0, 0.0, 0.0, 0.0]>, fillcolor="#a3e539"] ;
74 -> 75 ;
76 [label=<spatial_normalization/interpolation/nearest_neighbour &le; 0.5<br/>gini = 0.5<br/>samples = 1.5%<br/>value = [0.0, 0.0, 0.0, 0.0, 0.0, 0.0, 0.5, 0.0, 0.0, 0.0<br/>0.0, 0.0, 0.0, 0.0, 0.0, 0.0, 0.0, 0.5, 0.0, 0.0<br/>0.0, 0.0, 0.0, 0.0, 0.0, 0.0, 0.0, 0.0, 0.0, 0.0<br/>0.0, 0.0, 0.0, 0.0, 0.0, 0.0, 0.0]>, fillcolor="#ffffff"] ;
74 -> 76 ;
77 [label=<gini = 0.0<br/>samples = 0.8%<br/>value = [0.0, 0.0, 0.0, 0.0, 0.0, 0.0, 1.0, 0.0, 0.0, 0.0<br/>0.0, 0.0, 0.0, 0.0, 0.0, 0.0, 0.0, 0.0, 0.0, 0.0<br/>0.0, 0.0, 0.0, 0.0, 0.0, 0.0, 0.0, 0.0, 0.0, 0.0<br/>0.0, 0.0, 0.0, 0.0, 0.0, 0.0, 0.0]>, fillcolor="#a3e539"] ;
76 -> 77 ;
78 [label=<gini = 0.0<br/>samples = 0.8%<br/>value = [0.0, 0.0, 0.0, 0.0, 0.0, 0.0, 0.0, 0.0, 0.0, 0.0<br/>0.0, 0.0, 0.0, 0.0, 0.0, 0.0, 0.0, 1.0, 0.0, 0.0<br/>0.0, 0.0, 0.0, 0.0, 0.0, 0.0, 0.0, 0.0, 0.0, 0.0<br/>0.0, 0.0, 0.0, 0.0, 0.0, 0.0, 0.0]>, fillcolor="#39c8e5"] ;
76 -> 78 ;
79 [label=<spatial_normalization/interpolation/nearest_neighbour &le; 0.5<br/>gini = 0.444<br/>samples = 2.3%<br/>value = [0.0, 0.0, 0.0, 0.0, 0.0, 0.0, 0.0, 0.0, 0.0, 0.0<br/>0.0, 0.0, 0.0, 0.0, 0.0, 0.0, 0.0, 0.0, 0.0, 0.0<br/>0.0, 0.0, 0.0, 0.0, 0.0, 0.667, 0.0, 0.0, 0.0, 0.0<br/>0.333, 0.0, 0.0, 0.0, 0.0, 0.0, 0.0]>, fillcolor="#c49cf2"] ;
73 -> 79 ;
80 [label=<gini = 0.0<br/>samples = 1.3%<br/>value = [0.0, 0.0, 0.0, 0.0, 0.0, 0.0, 0.0, 0.0, 0.0, 0.0<br/>0.0, 0.0, 0.0, 0.0, 0.0, 0.0, 0.0, 0.0, 0.0, 0.0<br/>0.0, 0.0, 0.0, 0.0, 0.0, 1.0, 0.0, 0.0, 0.0, 0.0<br/>0.0, 0.0, 0.0, 0.0, 0.0, 0.0, 0.0]>, fillcolor="#8939e5"] ;
79 -> 80 ;
81 [label=<coregistration/source_target/func_on_anat &le; 0.5<br/>gini = 0.32<br/>samples = 1.0%<br/>value = [0.0, 0.0, 0.0, 0.0, 0.0, 0.0, 0.0, 0.0, 0.0, 0.0<br/>0.0, 0.0, 0.0, 0.0, 0.0, 0.0, 0.0, 0.0, 0.0, 0.0<br/>0.0, 0.0, 0.0, 0.0, 0.0, 0.2, 0.0, 0.0, 0.0, 0.0<br/>0.8, 0.0, 0.0, 0.0, 0.0, 0.0, 0.0]>, fillcolor="#ec6ac9"] ;
79 -> 81 ;
82 [label=<gini = 0.0<br/>samples = 0.8%<br/>value = [0.0, 0.0, 0.0, 0.0, 0.0, 0.0, 0.0, 0.0, 0.0, 0.0<br/>0.0, 0.0, 0.0, 0.0, 0.0, 0.0, 0.0, 0.0, 0.0, 0.0<br/>0.0, 0.0, 0.0, 0.0, 0.0, 0.0, 0.0, 0.0, 0.0, 0.0<br/>1.0, 0.0, 0.0, 0.0, 0.0, 0.0, 0.0]>, fillcolor="#e539b7"] ;
81 -> 82 ;
83 [label=<gini = 0.0<br/>samples = 0.2%<br/>value = [0.0, 0.0, 0.0, 0.0, 0.0, 0.0, 0.0, 0.0, 0.0, 0.0<br/>0.0, 0.0, 0.0, 0.0, 0.0, 0.0, 0.0, 0.0, 0.0, 0.0<br/>0.0, 0.0, 0.0, 0.0, 0.0, 1.0, 0.0, 0.0, 0.0, 0.0<br/>0.0, 0.0, 0.0, 0.0, 0.0, 0.0, 0.0]>, fillcolor="#8939e5"] ;
81 -> 83 ;
84 [label=<spatial_normalization/interpolation/nearest_neighbour &le; 0.5<br/>gini = 0.124<br/>samples = 2.9%<br/>value = [0.0, 0.0, 0.933, 0.0, 0.0, 0.0, 0.0, 0.0, 0.0, 0.0<br/>0.0, 0.0, 0.0, 0.0, 0.0, 0.0, 0.0, 0.067, 0.0, 0.0<br/>0.0, 0.0, 0.0, 0.0, 0.0, 0.0, 0.0, 0.0, 0.0, 0.0<br/>0.0, 0.0, 0.0, 0.0, 0.0, 0.0, 0.0]>, fillcolor="#e7bc47"] ;
72 -> 84 ;
85 [label=<gini = 0.0<br/>samples = 2.3%<br/>value = [0.0, 0.0, 1.0, 0.0, 0.0, 0.0, 0.0, 0.0, 0.0, 0.0<br/>0.0, 0.0, 0.0, 0.0, 0.0, 0.0, 0.0, 0.0, 0.0, 0.0<br/>0.0, 0.0, 0.0, 0.0, 0.0, 0.0, 0.0, 0.0, 0.0, 0.0<br/>0.0, 0.0, 0.0, 0.0, 0.0, 0.0, 0.0]>, fillcolor="#e5b739"] ;
84 -> 85 ;
86 [label=<coregistration/source_target/anat_on_func &le; 0.5<br/>gini = 0.444<br/>samples = 0.6%<br/>value = [0.0, 0.0, 0.667, 0.0, 0.0, 0.0, 0.0, 0.0, 0.0, 0.0<br/>0.0, 0.0, 0.0, 0.0, 0.0, 0.0, 0.0, 0.333, 0.0, 0.0<br/>0.0, 0.0, 0.0, 0.0, 0.0, 0.0, 0.0, 0.0, 0.0, 0.0<br/>0.0, 0.0, 0.0, 0.0, 0.0, 0.0, 0.0]>, fillcolor="#f2db9c"] ;
84 -> 86 ;
87 [label=<gini = 0.0<br/>samples = 0.4%<br/>value = [0.0, 0.0, 1.0, 0.0, 0.0, 0.0, 0.0, 0.0, 0.0, 0.0<br/>0.0, 0.0, 0.0, 0.0, 0.0, 0.0, 0.0, 0.0, 0.0, 0.0<br/>0.0, 0.0, 0.0, 0.0, 0.0, 0.0, 0.0, 0.0, 0.0, 0.0<br/>0.0, 0.0, 0.0, 0.0, 0.0, 0.0, 0.0]>, fillcolor="#e5b739"] ;
86 -> 87 ;
88 [label=<gini = 0.0<br/>samples = 0.2%<br/>value = [0.0, 0.0, 0.0, 0.0, 0.0, 0.0, 0.0, 0.0, 0.0, 0.0<br/>0.0, 0.0, 0.0, 0.0, 0.0, 0.0, 0.0, 1.0, 0.0, 0.0<br/>0.0, 0.0, 0.0, 0.0, 0.0, 0.0, 0.0, 0.0, 0.0, 0.0<br/>0.0, 0.0, 0.0, 0.0, 0.0, 0.0, 0.0]>, fillcolor="#39c8e5"] ;
86 -> 88 ;
89 [label=<slice_timing_correction/ref_slice/first &le; 0.5<br/>gini = 0.561<br/>samples = 10.2%<br/>value = [0.0, 0.0, 0.0, 0.604, 0.0, 0.0, 0.0, 0.0, 0.0, 0.0<br/>0.0, 0.0, 0.0, 0.0, 0.0, 0.113, 0.0, 0.0, 0.0, 0.0<br/>0.0, 0.0, 0.0, 0.0, 0.0, 0.0, 0.0, 0.0, 0.0, 0.0<br/>0.0, 0.0, 0.0, 0.0, 0.245, 0.0, 0.038]>, fillcolor="#f3eba1"] ;
71 -> 89 ;
90 [label=<spatial_normalization/interpolation/nearest_neighbour &le; 0.5<br/>gini = 0.266<br/>samples = 7.3%<br/>value = [0.0, 0.0, 0.0, 0.842, 0.0, 0.0, 0.0, 0.0, 0.0, 0.0<br/>0.0, 0.0, 0.0, 0.0, 0.0, 0.158, 0.0, 0.0, 0.0, 0.0<br/>0.0, 0.0, 0.0, 0.0, 0.0, 0.0, 0.0, 0.0, 0.0, 0.0<br/>0.0, 0.0, 0.0, 0.0, 0.0, 0.0, 0.0]>, fillcolor="#eadc5e"] ;
89 -> 90 ;
91 [label=<gini = 0.0<br/>samples = 5.0%<br/>value = [0.0, 0.0, 0.0, 1.0, 0.0, 0.0, 0.0, 0.0, 0.0, 0.0<br/>0.0, 0.0, 0.0, 0.0, 0.0, 0.0, 0.0, 0.0, 0.0, 0.0<br/>0.0, 0.0, 0.0, 0.0, 0.0, 0.0, 0.0, 0.0, 0.0, 0.0<br/>0.0, 0.0, 0.0, 0.0, 0.0, 0.0, 0.0]>, fillcolor="#e5d439"] ;
90 -> 91 ;
92 [label=<coregistration/source_target/func_on_anat &le; 0.5<br/>gini = 0.5<br/>samples = 2.3%<br/>value = [0.0, 0.0, 0.0, 0.5, 0.0, 0.0, 0.0, 0.0, 0.0, 0.0<br/>0.0, 0.0, 0.0, 0.0, 0.0, 0.5, 0.0, 0.0, 0.0, 0.0<br/>0.0, 0.0, 0.0, 0.0, 0.0, 0.0, 0.0, 0.0, 0.0, 0.0<br/>0.0, 0.0, 0.0, 0.0, 0.0, 0.0, 0.0]>, fillcolor="#ffffff"] ;
90 -> 92 ;
93 [label=<gini = 0.0<br/>samples = 1.2%<br/>value = [0.0, 0.0, 0.0, 0.0, 0.0, 0.0, 0.0, 0.0, 0.0, 0.0<br/>0.0, 0.0, 0.0, 0.0, 0.0, 1.0, 0.0, 0.0, 0.0, 0.0<br/>0.0, 0.0, 0.0, 0.0, 0.0, 0.0, 0.0, 0.0, 0.0, 0.0<br/>0.0, 0.0, 0.0, 0.0, 0.0, 0.0, 0.0]>, fillcolor="#39e5c8"] ;
92 -> 93 ;
94 [label=<gini = 0.0<br/>samples = 1.2%<br/>value = [0.0, 0.0, 0.0, 1.0, 0.0, 0.0, 0.0, 0.0, 0.0, 0.0<br/>0.0, 0.0, 0.0, 0.0, 0.0, 0.0, 0.0, 0.0, 0.0, 0.0<br/>0.0, 0.0, 0.0, 0.0, 0.0, 0.0, 0.0, 0.0, 0.0, 0.0<br/>0.0, 0.0, 0.0, 0.0, 0.0, 0.0, 0.0]>, fillcolor="#e5d439"] ;
92 -> 94 ;
95 [label=<spatial_normalization/interpolation/nearest_neighbour &le; 0.5<br/>gini = 0.231<br/>samples = 2.9%<br/>value = [0.0, 0.0, 0.0, 0.0, 0.0, 0.0, 0.0, 0.0, 0.0, 0.0<br/>0.0, 0.0, 0.0, 0.0, 0.0, 0.0, 0.0, 0.0, 0.0, 0.0<br/>0.0, 0.0, 0.0, 0.0, 0.0, 0.0, 0.0, 0.0, 0.0, 0.0<br/>0.0, 0.0, 0.0, 0.0, 0.867, 0.0, 0.133]>, fillcolor="#e95763"] ;
89 -> 95 ;
96 [label=<gini = 0.0<br/>samples = 1.9%<br/>value = [0.0, 0.0, 0.0, 0.0, 0.0, 0.0, 0.0, 0.0, 0.0, 0.0<br/>0.0, 0.0, 0.0, 0.0, 0.0, 0.0, 0.0, 0.0, 0.0, 0.0<br/>0.0, 0.0, 0.0, 0.0, 0.0, 0.0, 0.0, 0.0, 0.0, 0.0<br/>0.0, 0.0, 0.0, 0.0, 1.0, 0.0, 0.0]>, fillcolor="#e53947"] ;
95 -> 96 ;
97 [label=<coregistration/source_target/func_on_anat &le; 0.5<br/>gini = 0.48<br/>samples = 1.0%<br/>value = [0.0, 0.0, 0.0, 0.0, 0.0, 0.0, 0.0, 0.0, 0.0, 0.0<br/>0.0, 0.0, 0.0, 0.0, 0.0, 0.0, 0.0, 0.0, 0.0, 0.0<br/>0.0, 0.0, 0.0, 0.0, 0.0, 0.0, 0.0, 0.0, 0.0, 0.0<br/>0.0, 0.0, 0.0, 0.0, 0.6, 0.0, 0.4]>, fillcolor="#f6bdc2"] ;
95 -> 97 ;
98 [label=<gini = 0.0<br/>samples = 0.4%<br/>value = [0.0, 0.0, 0.0, 0.0, 0.0, 0.0, 0.0, 0.0, 0.0, 0.0<br/>0.0, 0.0, 0.0, 0.0, 0.0, 0.0, 0.0, 0.0, 0.0, 0.0<br/>0.0, 0.0, 0.0, 0.0, 0.0, 0.0, 0.0, 0.0, 0.0, 0.0<br/>0.0, 0.0, 0.0, 0.0, 0.0, 0.0, 1.0]>, fillcolor="#e56439"] ;
97 -> 98 ;
99 [label=<gini = 0.0<br/>samples = 0.6%<br/>value = [0.0, 0.0, 0.0, 0.0, 0.0, 0.0, 0.0, 0.0, 0.0, 0.0<br/>0.0, 0.0, 0.0, 0.0, 0.0, 0.0, 0.0, 0.0, 0.0, 0.0<br/>0.0, 0.0, 0.0, 0.0, 0.0, 0.0, 0.0, 0.0, 0.0, 0.0<br/>0.0, 0.0, 0.0, 0.0, 1.0, 0.0, 0.0]>, fillcolor="#e53947"] ;
97 -> 99 ;
100 [label=<signal_modeling/nuisance_regressors/motion &le; 21.0<br/>gini = 0.798<br/>samples = 17.5%<br/>value = [0.0, 0.0, 0.0, 0.0, 0.0, 0.0, 0.0, 0.0, 0.0, 0.0<br/>0.253, 0.0, 0.286, 0.0, 0.0, 0.0, 0.0, 0.0, 0.0, 0.0<br/>0.0, 0.099, 0.0, 0.143, 0.0, 0.0, 0.0, 0.154, 0.0<br/>0.0, 0.0, 0.033, 0.0, 0.0, 0.0, 0.033, 0.0]>, fillcolor="#f6fef9"] ;
32 -> 100 ;
101 [label=<slice_timing_correction/ref_slice/first &le; 0.5<br/>gini = 0.544<br/>samples = 8.5%<br/>value = [0.0, 0.0, 0.0, 0.0, 0.0, 0.0, 0.0, 0.0, 0.0, 0.0<br/>0.0, 0.0, 0.591, 0.0, 0.0, 0.0, 0.0, 0.0, 0.0, 0.0<br/>0.0, 0.068, 0.0, 0.0, 0.0, 0.0, 0.0, 0.318, 0.0, 0.0<br/>0.0, 0.023, 0.0, 0.0, 0.0, 0.0, 0.0]>, fillcolor="#b0f5c8"] ;
100 -> 101 ;
102 [label=<spatial_normalization/interpolation/nearest_neighbour &le; 0.5<br/>gini = 0.185<br/>samples = 5.6%<br/>value = [0.0, 0.0, 0.0, 0.0, 0.0, 0.0, 0.0, 0.0, 0.0, 0.0<br/>0.0, 0.0, 0.897, 0.0, 0.0, 0.0, 0.0, 0.0, 0.0, 0.0<br/>0.0, 0.103, 0.0, 0.0, 0.0, 0.0, 0.0, 0.0, 0.0, 0.0<br/>0.0, 0.0, 0.0, 0.0, 0.0, 0.0, 0.0]>, fillcolor="#50e885"] ;
101 -> 102 ;
103 [label=<gini = 0.0<br/>samples = 4.0%<br/>value = [0.0, 0.0, 0.0, 0.0, 0.0, 0.0, 0.0, 0.0, 0.0, 0.0<br/>0.0, 0.0, 1.0, 0.0, 0.0, 0.0, 0.0, 0.0, 0.0, 0.0<br/>0.0, 0.0, 0.0, 0.0, 0.0, 0.0, 0.0, 0.0, 0.0, 0.0<br/>0.0, 0.0, 0.0, 0.0, 0.0, 0.0, 0.0]>, fillcolor="#39e575"] ;
102 -> 103 ;
104 [label=<coregistration/source_target/func_on_anat &le; 0.5<br/>gini = 0.469<br/>samples = 1.5%<br/>value = [0.0, 0.0, 0.0, 0.0, 0.0, 0.0, 0.0, 0.0, 0.0, 0.0<br/>0.0, 0.0, 0.625, 0.0, 0.0, 0.0, 0.0, 0.0, 0.0, 0.0<br/>0.0, 0.375, 0.0, 0.0, 0.0, 0.0, 0.0, 0.0, 0.0, 0.0<br/>0.0, 0.0, 0.0, 0.0, 0.0, 0.0, 0.0]>, fillcolor="#b0f5c8"] ;
102 -> 104 ;
105 [label=<gini = 0.0<br/>samples = 0.6%<br/>value = [0.0, 0.0, 0.0, 0.0, 0.0, 0.0, 0.0, 0.0, 0.0, 0.0<br/>0.0, 0.0, 0.0, 0.0, 0.0, 0.0, 0.0, 0.0, 0.0, 0.0<br/>0.0, 1.0, 0.0, 0.0, 0.0, 0.0, 0.0, 0.0, 0.0, 0.0<br/>0.0, 0.0, 0.0, 0.0, 0.0, 0.0, 0.0]>, fillcolor="#3958e5"] ;
104 -> 105 ;
106 [label=<gini = 0.0<br/>samples = 1.0%<br/>value = [0.0, 0.0, 0.0, 0.0, 0.0, 0.0, 0.0, 0.0, 0.0, 0.0<br/>0.0, 0.0, 1.0, 0.0, 0.0, 0.0, 0.0, 0.0, 0.0, 0.0<br/>0.0, 0.0, 0.0, 0.0, 0.0, 0.0, 0.0, 0.0, 0.0, 0.0<br/>0.0, 0.0, 0.0, 0.0, 0.0, 0.0, 0.0]>, fillcolor="#39e575"] ;
104 -> 106 ;
107 [label=<spatial_normalization/interpolation/nearest_neighbour &le; 0.5<br/>gini = 0.124<br/>samples = 2.9%<br/>value = [0.0, 0.0, 0.0, 0.0, 0.0, 0.0, 0.0, 0.0, 0.0, 0.0<br/>0.0, 0.0, 0.0, 0.0, 0.0, 0.0, 0.0, 0.0, 0.0, 0.0<br/>0.0, 0.0, 0.0, 0.0, 0.0, 0.0, 0.0, 0.933, 0.0, 0.0<br/>0.0, 0.067, 0.0, 0.0, 0.0, 0.0, 0.0]>, fillcolor="#c447e7"] ;
101 -> 107 ;
108 [label=<gini = 0.0<br/>samples = 1.9%<br/>value = [0.0, 0.0, 0.0, 0.0, 0.0, 0.0, 0.0, 0.0, 0.0, 0.0<br/>0.0, 0.0, 0.0, 0.0, 0.0, 0.0, 0.0, 0.0, 0.0, 0.0<br/>0.0, 0.0, 0.0, 0.0, 0.0, 0.0, 0.0, 1.0, 0.0, 0.0<br/>0.0, 0.0, 0.0, 0.0, 0.0, 0.0, 0.0]>, fillcolor="#c039e5"] ;
107 -> 108 ;
109 [label=<coregistration/source_target/anat_on_func &le; 0.5<br/>gini = 0.32<br/>samples = 1.0%<br/>value = [0.0, 0.0, 0.0, 0.0, 0.0, 0.0, 0.0, 0.0, 0.0, 0.0<br/>0.0, 0.0, 0.0, 0.0, 0.0, 0.0, 0.0, 0.0, 0.0, 0.0<br/>0.0, 0.0, 0.0, 0.0, 0.0, 0.0, 0.0, 0.8, 0.0, 0.0<br/>0.0, 0.2, 0.0, 0.0, 0.0, 0.0, 0.0]>, fillcolor="#d06aec"] ;
107 -> 109 ;
110 [label=<gini = 0.0<br/>samples = 0.8%<br/>value = [0.0, 0.0, 0.0, 0.0, 0.0, 0.0, 0.0, 0.0, 0.0, 0.0<br/>0.0, 0.0, 0.0, 0.0, 0.0, 0.0, 0.0, 0.0, 0.0, 0.0<br/>0.0, 0.0, 0.0, 0.0, 0.0, 0.0, 0.0, 1.0, 0.0, 0.0<br/>0.0, 0.0, 0.0, 0.0, 0.0, 0.0, 0.0]>, fillcolor="#c039e5"] ;
109 -> 110 ;
111 [label=<gini = 0.0<br/>samples = 0.2%<br/>value = [0.0, 0.0, 0.0, 0.0, 0.0, 0.0, 0.0, 0.0, 0.0, 0.0<br/>0.0, 0.0, 0.0, 0.0, 0.0, 0.0, 0.0, 0.0, 0.0, 0.0<br/>0.0, 0.0, 0.0, 0.0, 0.0, 0.0, 0.0, 0.0, 0.0, 0.0<br/>0.0, 1.0, 0.0, 0.0, 0.0, 0.0, 0.0]>, fillcolor="#e5399a"] ;
109 -> 111 ;
112 [label=<slice_timing_correction/ref_slice/first &le; 0.5<br/>gini = 0.662<br/>samples = 9.0%<br/>value = [0.0, 0.0, 0.0, 0.0, 0.0, 0.0, 0.0, 0.0, 0.0, 0.0<br/>0.489, 0.0, 0.0, 0.0, 0.0, 0.0, 0.0, 0.0, 0.0, 0.0<br/>0.0, 0.128, 0.0, 0.277, 0.0, 0.0, 0.0, 0.0, 0.0, 0.0<br/>0.0, 0.043, 0.0, 0.0, 0.0, 0.064, 0.0]>, fillcolor="#c5f7c7"] ;
100 -> 112 ;
113 [label=<spatial_normalization/interpolation/nearest_neighbour &le; 0.5<br/>gini = 0.328<br/>samples = 5.6%<br/>value = [0.0, 0.0, 0.0, 0.0, 0.0, 0.0, 0.0, 0.0, 0.0, 0.0<br/>0.793, 0.0, 0.0, 0.0, 0.0, 0.0, 0.0, 0.0, 0.0, 0.0<br/>0.0, 0.207, 0.0, 0.0, 0.0, 0.0, 0.0, 0.0, 0.0, 0.0<br/>0.0, 0.0, 0.0, 0.0, 0.0, 0.0, 0.0]>, fillcolor="#6dec71"] ;
112 -> 113 ;
114 [label=<gini = 0.0<br/>samples = 3.1%<br/>value = [0.0, 0.0, 0.0, 0.0, 0.0, 0.0, 0.0, 0.0, 0.0, 0.0<br/>1.0, 0.0, 0.0, 0.0, 0.0, 0.0, 0.0, 0.0, 0.0, 0.0<br/>0.0, 0.0, 0.0, 0.0, 0.0, 0.0, 0.0, 0.0, 0.0, 0.0<br/>0.0, 0.0, 0.0, 0.0, 0.0, 0.0, 0.0]>, fillcolor="#39e53f"] ;
113 -> 114 ;
115 [label=<coregistration/source_target/anat_on_func &le; 0.5<br/>gini = 0.497<br/>samples = 2.5%<br/>value = [0.0, 0.0, 0.0, 0.0, 0.0, 0.0, 0.0, 0.0, 0.0, 0.0<br/>0.538, 0.0, 0.0, 0.0, 0.0, 0.0, 0.0, 0.0, 0.0, 0.0<br/>0.0, 0.462, 0.0, 0.0, 0.0, 0.0, 0.0, 0.0, 0.0, 0.0<br/>0.0, 0.0, 0.0, 0.0, 0.0, 0.0, 0.0]>, fillcolor="#e3fbe4"] ;
113 -> 115 ;
116 [label=<gini = 0.0<br/>samples = 1.3%<br/>value = [0.0, 0.0, 0.0, 0.0, 0.0, 0.0, 0.0, 0.0, 0.0, 0.0<br/>1.0, 0.0, 0.0, 0.0, 0.0, 0.0, 0.0, 0.0, 0.0, 0.0<br/>0.0, 0.0, 0.0, 0.0, 0.0, 0.0, 0.0, 0.0, 0.0, 0.0<br/>0.0, 0.0, 0.0, 0.0, 0.0, 0.0, 0.0]>, fillcolor="#39e53f"] ;
115 -> 116 ;
117 [label=<gini = 0.0<br/>samples = 1.2%<br/>value = [0.0, 0.0, 0.0, 0.0, 0.0, 0.0, 0.0, 0.0, 0.0, 0.0<br/>0.0, 0.0, 0.0, 0.0, 0.0, 0.0, 0.0, 0.0, 0.0, 0.0<br/>0.0, 1.0, 0.0, 0.0, 0.0, 0.0, 0.0, 0.0, 0.0, 0.0<br/>0.0, 0.0, 0.0, 0.0, 0.0, 0.0, 0.0]>, fillcolor="#3958e5"] ;
115 -> 117 ;
118 [label=<spatial_normalization/interpolation/nearest_neighbour &le; 0.5<br/>gini = 0.438<br/>samples = 3.5%<br/>value = [0.0, 0.0, 0.0, 0.0, 0.0, 0.0, 0.0, 0.0, 0.0, 0.0<br/>0.0, 0.0, 0.0, 0.0, 0.0, 0.0, 0.0, 0.0, 0.0, 0.0<br/>0.0, 0.0, 0.0, 0.722, 0.0, 0.0, 0.0, 0.0, 0.0, 0.0<br/>0.0, 0.111, 0.0, 0.0, 0.0, 0.167, 0.0]>, fillcolor="#8a7bee"] ;
112 -> 118 ;
119 [label=<coregistration/source_target/func_on_anat &le; 0.5<br/>gini = 0.305<br/>samples = 3.1%<br/>value = [0.0, 0.0, 0.0, 0.0, 0.0, 0.0, 0.0, 0.0, 0.0, 0.0<br/>0.0, 0.0, 0.0, 0.0, 0.0, 0.0, 0.0, 0.0, 0.0, 0.0<br/>0.0, 0.0, 0.0, 0.812, 0.0, 0.0, 0.0, 0.0, 0.0, 0.0<br/>0.0, 0.0, 0.0, 0.0, 0.0, 0.188, 0.0]>, fillcolor="#7867eb"] ;
118 -> 119 ;
120 [label=<signal_modeling/temporal_noise_autocorrelation/AR1 &le; 0.5<br/>gini = 0.5<br/>samples = 1.2%<br/>value = [0.0, 0.0, 0.0, 0.0, 0.0, 0.0, 0.0, 0.0, 0.0, 0.0<br/>0.0, 0.0, 0.0, 0.0, 0.0, 0.0, 0.0, 0.0, 0.0, 0.0<br/>0.0, 0.0, 0.0, 0.5, 0.0, 0.0, 0.0, 0.0, 0.0, 0.0<br/>0.0, 0.0, 0.0, 0.0, 0.0, 0.5, 0.0]>, fillcolor="#ffffff"] ;
119 -> 120 ;
121 [label=<gini = 0.0<br/>samples = 0.6%<br/>value = [0.0, 0.0, 0.0, 0.0, 0.0, 0.0, 0.0, 0.0, 0.0, 0.0<br/>0.0, 0.0, 0.0, 0.0, 0.0, 0.0, 0.0, 0.0, 0.0, 0.0<br/>0.0, 0.0, 0.0, 0.0, 0.0, 0.0, 0.0, 0.0, 0.0, 0.0<br/>0.0, 0.0, 0.0, 0.0, 0.0, 1.0, 0.0]>, fillcolor="#e54739"] ;
120 -> 121 ;
122 [label=<gini = 0.0<br/>samples = 0.6%<br/>value = [0.0, 0.0, 0.0, 0.0, 0.0, 0.0, 0.0, 0.0, 0.0, 0.0<br/>0.0, 0.0, 0.0, 0.0, 0.0, 0.0, 0.0, 0.0, 0.0, 0.0<br/>0.0, 0.0, 0.0, 1.0, 0.0, 0.0, 0.0, 0.0, 0.0, 0.0<br/>0.0, 0.0, 0.0, 0.0, 0.0, 0.0, 0.0]>, fillcolor="#5039e5"] ;
120 -> 122 ;
123 [label=<gini = 0.0<br/>samples = 1.9%<br/>value = [0.0, 0.0, 0.0, 0.0, 0.0, 0.0, 0.0, 0.0, 0.0, 0.0<br/>0.0, 0.0, 0.0, 0.0, 0.0, 0.0, 0.0, 0.0, 0.0, 0.0<br/>0.0, 0.0, 0.0, 1.0, 0.0, 0.0, 0.0, 0.0, 0.0, 0.0<br/>0.0, 0.0, 0.0, 0.0, 0.0, 0.0, 0.0]>, fillcolor="#5039e5"] ;
119 -> 123 ;
124 [label=<gini = 0.0<br/>samples = 0.4%<br/>value = [0.0, 0.0, 0.0, 0.0, 0.0, 0.0, 0.0, 0.0, 0.0, 0.0<br/>0.0, 0.0, 0.0, 0.0, 0.0, 0.0, 0.0, 0.0, 0.0, 0.0<br/>0.0, 0.0, 0.0, 0.0, 0.0, 0.0, 0.0, 0.0, 0.0, 0.0<br/>0.0, 1.0, 0.0, 0.0, 0.0, 0.0, 0.0]>, fillcolor="#e5399a"] ;
118 -> 124 ;
{rank=same ; 0} ;
{rank=same ; 1; 16} ;
{rank=same ; 49; 54} ;
{rank=same ; 2; 13; 17; 32} ;
{rank=same ; 3; 8; 18; 25; 33; 100} ;
{rank=same ; 5; 9; 19; 26; 34; 71; 101; 112} ;
{rank=same ; 21; 28; 35; 64; 72; 89; 102; 107; 113; 118} ;
{rank=same ; 36; 43; 65; 73; 84; 90; 95; 104; 109; 115; 119} ;
{rank=same ; 38; 44; 57; 67; 74; 79; 86; 92; 97; 120} ;
{rank=same ; 40; 46; 59; 76; 81} ;
{rank=same ; 47; 52; 61} ;
{rank=same ; 4; 6; 7; 10; 11; 12; 14; 15; 20; 22; 23; 24; 27; 29; 30; 31; 37; 39; 41; 42; 45; 48; 50; 51; 53; 55; 56; 58; 60; 62; 63; 66; 68; 69; 70; 75; 77; 78; 80; 82; 83; 85; 87; 88; 91; 93; 94; 96; 98; 99; 103; 105; 106; 108; 110; 111; 114; 116; 117; 121; 122; 123; 124} ;
}
